0.0911456731559, 0.779722442612, -0.384101371304, 0.749450977945, 0.142050811556, 0.240138187007, 0.363665503066, 0.253630440168, 0.651441175374, 0.0773600319344, 0.27207290645, -0.177971729216, 0.904703253475, 0.569819872142, -0.00371523859167, 0.242125894285, 0.248307527806, 0.252196763192, 0.515636374234, 0.666166671171, 0.541838269601, 0.480796542295, -0.396020968886, 0.375319505156, -0.26404388244, 0.478619493175, 0.663193397076, 0.419947228481, 0.564626712187, 0.0774728648124, 0.312466441737, 0.333963242788, 0.544808056069, 0.739038149768, 0.440403080784, 0.467409240434, 0.522581994875, 0.450913596877, 0.770282580662, 0.542821147229, 0.361772667715, 0.642261023968, 0.725159614392, 0.370808615255, 0.423330808064, -0.081432724933, 0.875927554516, 0.652807975614, 0.457979280998
0.581933194461, 0.609626493654, 0.74556603195, 0.768054584346, 0.241228232394, 0.591071889075, 0.517380316296, 0.329650533653, 0.310263120135, 0.304840735318, -0.521664257767, 0.050708106569, 0.121713750678, -0.781016229132, -0.721344240421, 0.0567845251222, -0.0505973456768, 0.0371912259479, 0.641679549806, 0.281984615887, 0.660305912146, 0.316191575295, 0.526031926741, 0.0913665779668, -0.469244740321, 0.107982813726, 0.00813946615614, -0.201664816887, 0.544933566866, -0.175684128766, 0.748588941492, -0.0541937086535, -0.00686104715925, 0.201587988279, -0.32146305318, 0.562789745647, 0.487961399208, -0.183336923492, 0.457709262675, 0.33738289327, 0.0548717105029, 0.069254958112, 0.648745741248, 0.325274006892, 0.17821823807, 0.816961243033, 0.625388673111, 0.384609787271, -0.173605361787
0.318656008812, -0.481228383366, -0.295166450638, -0.0710898578813, -0.0851755882304, 0.22398673514, -0.232346426306, 0.404944417442, -0.375983348664, 0.359043751207, -0.223911899512, -0.344421373213, 0.73675463169, -0.0243196504393, -0.626859328432, -0.173083158652, 0.0750167801286, 0.570879022863, 0.14597087592, -0.483704566441, -0.388653881196, 0.180068077914, -0.0474667129343, -0.205542506008, -0.684709318331, -0.122443705165, 0.591838520976, -0.463682221462, 0.363382790227, 0.434137661501, -0.71339620433, 0.385832513391, -0.606906063303, 0.197320915712, 0.0514819335202, -0.510896638429, -0.408680849517, 0.0989777062347, -0.347469026288, -0.304148956797, -0.131478301031, 0.77123722116, 0.493418515165, -0.324961636581, -0.29309564719, 0.481586706589, -0.165826758879, 0.638316383504, -0.562863509707
0.446987771192, 0.665528774433, 0.472006143998, 0.624142478703, -0.376922880807, 0.822272733958, 0.699080115623, 0.538123721126, 0.187155923624, 0.236610148945, 0.515256243296, 0.297940534933, 0.618576183085, 0.46684012575, -0.5158890357, 0.456015294919, -0.249712555804, 0.151543176673, 0.485642741008, 0.163450992923, 0.548304906469, 0.637830648115, 0.361466582228, 0.33646578258, 0.455095221896, 0.433642271308, 0.349449264706, 0.254063343586, 0.778789685593, 0.651480010024, 0.982717439627, 0.587065652602, 0.408409217811, 0.354272013886, -0.286814666092, 0.577767650478, 0.489953684258, 0.332096161521, 0.339596908981, -0.560943440943, 0.468137904412, 0.266282100633, 0.718381286495, -0.377393713935, -0.0790440503158, 0.498002683338, 0.559248839276, -0.334872344667, 0.670530837202
-0.360593994788, 0.578539907468, 0.448438100409, 0.801079919954, 0.311017830844, -0.0590846016584, 0.11500645859, 0.54652409683, -0.0323083474576, 0.561046913698, 0.0656330304306, 0.216591742139, 0.061328918381, 0.74657034088, -0.485574784149, 0.519145395229, 0.741696746106, 0.0951149409863, 0.563153740122, 0.494809647958, 0.63689807255, 0.147624468794, 0.175101420013, 0.268067329118, -0.457104461272, 0.834456483876, 0.228327479913, 0.745859154705, 0.525164042957, 0.736971774643, 0.857632981503, 0.583281010154, 0.258474507455, 0.183535694476, 0.704570997973, 0.0524247416321, 0.615856013023, 0.458911578198, 0.768553166714, 0.307422946005, 0.0605297276372, 0.447779669506, 0.654178782436, 0.336510346991, -0.000387822967913, 0.577600338819, 0.567970279156, 0.730786154269, 0.125602096137
0.815055158604, 0.788892831581, 0.763159550919, 0.428229732679, -0.00879671231076, 0.36416286691, 0.55785538755, 0.230566751862, 0.399918846673, 0.278661398209, 0.581110169313, 0.418392792312, 0.485387891814, 0.336160195706, -0.334462297922, 0.411952376185, -0.232779061918, 0.462376563995, 0.489077917194, 0.307065432469, 0.646914393432, 0.387455660927, 0.244340196353, 0.301681587838, 0.580773377146, 0.570101992124, -0.397907306012, 0.220426105131, 0.423515777067, 0.334081271172, 0.765484886513, 0.811412907255, 0.0428125104739, 0.557436840992, -0.0930573454423, -0.010928461912, 0.311448361746, -0.280895299736, 0.635764540014, 0.748511725767, 0.491675812481, -0.0978606129708, 0.804991047404, 0.723343660249, -0.208041827054, 0.712070601759, 0.788963051887, 0.120030990911, 0.0530812047442
-0.196839649035, 0.0686905122048, 0.271971714744, 0.685958064636, 0.282865283462, 0.0464288655253, -0.355620150128, 0.181711862905, 0.314331489284, -0.277875427916, 0.503912383447, -0.284920003922, 0.0800449527756, 0.219458993337, -0.0730559179617, 0.0752458418389, 0.715810266814, 0.278356825925, -0.0866930897837, 0.591731704935, 0.0792676895826, 0.234639366036, -0.295667153634, -0.454932042228, 0.131018116139, 0.609315873875, -0.314592659987, -0.476061728208, 0.68342327478, 0.50395180555, 0.782764082489, 0.764802158647, 0.0765570267896, -0.293247652856, 0.738682361217, 0.256380092808, 0.38066584799, 0.623614002889, -0.357733376582, -0.024494181652, -0.0161554634324, 0.306039447917, 0.531353007544, -0.126288833262, -0.183652611932, 0.0385933691952, 0.72831055946, 0.415847105931, 0.596273798745
0.669169864737, 0.739782255935, 0.322802618045, 0.800387885953, 0.107637319727, 0.458361457237, -0.20801500104, 0.588490471538, 0.236406162307, 0.105268682776, -0.488115920074, 0.164255342834, 0.596640499064, -0.450775146388, -0.00616061416774, 0.352461808404, -0.568746556975, 0.284354245535, 0.732198387405, 0.142877328358, 0.273186992164, 0.218848142622, -0.457870928991, 0.5479319065, -0.332237377217, 0.374548270437, 0.382835519244, 0.4467167169, 0.283544815579, 0.254451773307, 0.95262424897, -0.00280086232975, -0.0324271813189, 0.546560697839, -0.418491748551, -0.0781301097415, 0.455199189577, 0.550557550414, 0.567129829281, 0.0947222573619, -0.0310483975086, 0.0181250535126, 0.747196778169, 0.182472235877, 0.36803936282, 0.459568362782, -0.152460819295, 0.389773605075, 0.21204717911
0.188963071375, -0.02382008525, 0.281112862102, 0.176981819679, -0.0961326216935, -0.0513644698666, -0.384864120818, 0.057379458847, 0.329186334765, 0.0310094133442, 0.32624448382, 0.0189632031225, -0.0423294078509, 0.309994827647, -0.372520445857, 0.0677636892734, 0.680186878096, 0.251040437654, 0.0249646095872, 0.193718612082, -0.0727047949068, 0.1264230315, 0.423327746701, -0.635011424772, -0.332568591421, 0.657641871822, -0.171505134278, -0.219147288746, 0.763462314424, 0.403065183234, -0.791203258149, 0.684456408133, 0.142348613949, -0.162409368233, 0.580774584682, 0.0400018466757, 0.407091072438, 0.209376339562, -0.676624877855, 0.34478522132, -0.262805202681, 0.133978726187, 0.811350887398, 0.0308175630504, -0.207212131678, -0.190356089931, 0.510371704237, 0.218813241511, 0.495964036352
-0.546444681711, 0.220454319888, 0.27992326003, 0.725128139676, 0.147757414093, 0.341902466301, -0.207257044997, 0.365169173138, 0.29035652925, 0.106496774056, 0.312345289908, -0.268713689064, -0.0800874199717, 0.380856019446, -0.619267472699, 0.263302660322, 0.73426130807, 0.117823011238, -0.0434286056428, 0.629509568511, 0.491165222683, 0.14526357465, 0.703360632598, -0.28342195934, -0.700351289926, 0.848720366971, -0.102333431492, 0.645424140423, 0.54202999339, 0.0219628174366, 0.722785886796, 0.720332341164, -0.0563832078991, 0.20672157413, 0.624515152682, 0.387182531882, 0.428115636293, 0.586815701827, 0.307661813616, -0.432426953773, 0.141498742196, 0.260336579769, 0.727972864544, -0.242654285515, -0.103910040762, 0.631873554591, 0.663926130107, 0.810481210118, 0.36602345746
-0.305609231774, 0.520388843395, -0.347196179148, 0.0265560843731, -0.0379635564339, 0.39280651181, -0.107392802176, 0.316757882584, -0.317153417398, 0.111413180798, 0.342252727765, 0.0848217359433, 0.248483205067, -0.0555817304384, -0.608945107292, 0.12449495513, 0.407741649479, 0.0965843401174, 0.31794598587, 0.0874608559132, -0.73547704057, 0.654277420079, 0.0654826649057, 0.515994789183, -0.232351203749, -0.156278806473, 0.0989809249342, 0.346168016364, 0.102341997311, -0.112554954446, 0.122059058002, 0.0260154159728, 0.446803896088, 0.164398394222, -0.0100143741266, -0.0614197218691, 0.233274670941, 0.293151188042, -0.220330299944, 0.51377891394, -0.206290764091, 0.788687559018, 0.473236935291, 0.71559440741, -0.620962247746, 0.17737814426, -0.105953642007, 0.214158542368, 0.113121663475
0.500650001398, 0.581616659659, 0.786816592944, -0.624209608093, -0.0827176713505, 0.791728268846, 0.160062067725, 0.514546534356, 0.35762055687, -0.0104634954948, 0.291295237276, -0.441631299719, -0.00274481278968, -0.771829553915, -0.705841528054, 0.212077758263, -0.114514360256, -0.266073626378, 0.193199195052, 0.144304805722, 0.432683494789, 0.508138817434, 0.148834237339, 0.444414296861, -0.746726123659, -0.252984177072, 0.577518605813, 0.340223827156, 0.585230580963, 0.333434620078, 0.736442342206, 0.17862167344, -0.444916698221, 0.521600107691, 0.0630392576194, 0.0193717198739, 0.56955200468, -0.187910595935, 0.26403193862, 0.349494552124, -0.305141037852, 0.253778257589, 0.735460439627, -0.0428382540256, 0.311183425238, 0.610156114341, 0.776784619158, 0.0709047908175, 0.420035160456
-0.377002124806, 0.11841342897, -0.632583709738, -0.346631294345, -0.0189933599367, 0.792358448954, 0.168688244065, -0.077581415693, -0.728618037443, 0.64721069282, 0.0677717453292, 0.548361864201, -0.0693359525142, 0.573496189616, -0.563302445224, 0.0291837708543, 0.553747992737, 0.337382042577, 0.488487675462, -0.0854534962418, 0.284806703097, 0.721351620271, -0.735368209729, 0.789869891778, 0.230460588911, -0.40762204103, 0.136030834724, 0.202761238305, 0.44830177808, 0.279735544302, -0.163590401502, -0.230443540153, -0.376775870988, 0.316672167804, -0.218343466476, -0.341207364006, 0.0309284879465, 0.187426217063, 0.0493431873953, 0.35508594345, 0.0461828911784, 0.828390963855, 0.678330893023, 0.470554071778, -0.371224526378, 0.142191054679, -0.273750777788, 0.285064775649, 0.213117491035
0.0938465320383, 0.715282909222, 0.0717032507547, 0.313875017688, -0.453521257342, -0.139931464632, 0.0802823276168, 0.0653064132808, -0.0175193203569, 0.169865858294, -0.144735159769, 0.391210919998, 0.380333408634, 0.479094009632, 0.479431407858, 0.107768822517, 0.364688978325, -0.16472659436, 0.490052240291, -0.121875280114, 0.28651650919, 0.615443448274, 0.66780229046, 0.618311076664, 0.449554646078, 0.523207101115, -0.0843311898914, -0.12965099511, 0.188610989813, 0.220869061928, -0.866787885028, 0.261772419724, -0.059885584895, 0.387840648254, -0.365373910842, 0.180813890388, 0.00101181292846, 0.261989843175, -0.447355969427, 0.181960093733, -0.311718661596, 0.734950703193, 0.579757469249, 0.22755048805, 0.309017467082, 0.364884276606, 0.178030102949, -0.189399128321, -0.22723930943
-0.077569843844, 0.276482860799, -0.453503142821, -0.470505386826, -0.165420651942, 0.550809675612, 0.21600344672, 0.00542416443437, -0.391849616865, 0.408061808211, -0.00609474707656, 0.0630907021292, 0.0931641796742, 0.0224659322886, -0.2070968533, -0.256256903851, -0.354549959572, 0.018302955444, 0.448099412431, -0.458543624156, 0.620504097564, 0.597463462059, -0.196371053968, -0.443205491872, -0.566702762339, -0.488560770479, -0.0616691751468, -0.12763175177, 0.241513598115, 0.644190844869, 0.90907805884, -0.216589168391, 0.074925477871, -0.257093947546, -0.00293898514004, -0.199774695793, -0.554009922898, 0.0461047406415, 0.287102595839, 0.0900051220067, -0.378174095329, 0.874830487132, 0.523473716915, 0.606153903467, 0.261182944277, -0.327457353394, -0.492007274349, -0.547732148185, -0.858561949241
0.48233028112, 0.0732240254044, 0.707337058866, -0.234157619685, 0.909419415745, 0.255232954209, 0.847047211606, 0.428260914318, 0.43558973544, 0.690721648238, 0.20410578289, 0.64057451644, 0.843184394182, 0.485030738356, 0.738775074112, 0.804235691999, 0.550519591606, 0.655512786182, 0.755161184346, 0.61356398152, -0.102419927964, 0.933511342497, 0.740348973248, 0.893691131727, 0.619257559164, 0.178911146971, 0.603694660532, -0.274318815209, 0.113348333296, 0.674976932667, -0.653412204917, 0.836020251664, 0.60256829155, 0.527337256278, 0.315152316755, 0.546203711069, 0.744719354158, 0.42077774612, 0.64582853149, 0.376846781868, -0.255690352535, 0.936239273374, 0.879019672602, 0.468694582708, 0.568422999987, 0.391423004378, 0.883673127186, 0.767445694681, 0.895389708178
0.0837852145878, 0.322184019153, 0.533150452568, -0.273131061495, 0.187528856532, 0.407288272275, -0.299995590031, -0.348122268427, -0.710247671434, 0.481041204527, -0.751965431774, 0.525844912355, 0.307124691339, 0.292750127772, -0.550660426669, -0.282682447221, -0.316842088766, 0.160980492483, 0.263612339423, -0.638438185654, 0.646954073251, 0.719467379499, -0.443438716443, -0.384646888991, -0.140880327245, 0.658561914766, -0.350828815723, -0.0796954839566, 0.523127946011, 0.42191733308, 0.389861241974, 0.0369955525461, -0.390994995042, 0.263349872218, 0.207413172638, 0.035216357646, -0.215676191932, 0.446723879459, 0.757535527455, 0.115396740673, -0.108369995275, 0.747964723264, 0.624840301342, 0.265610276979, -0.238793529266, -0.141401174473, -0.232465391696, -0.646480198348, -0.232081904668
-0.650561170089, -0.258911691046, -0.506308695748, -0.409169832049, -0.530282623676, -0.106171432711, 0.221622353985, -0.287070533415, 0.251160762134, -0.127747228597, -0.0240928178252, -0.0256146474816, 0.0854695571883, -0.234433123241, -0.124343662738, -0.10473991064, 0.116124349357, 0.0392192477869, 0.198476807586, -0.123694960874, -0.753846189025, 0.374548385268, -0.363814766299, 0.12621086405, -0.568285007851, -0.344579482066, -0.234427203017, -0.655035564805, -0.420551946707, -0.538606749442, 0.552821034804, 0.312244056237, -0.207084376576, -0.608968767496, -0.730999223112, 0.254760152992, -0.299200938747, -0.407115310242, 0.25225419845, 0.694332827408, -0.266484840515, -0.171489815726, 0.231167660261, 0.178344331027, -0.709582378593, -0.709607304632, 0.49808750479, -0.338494967124, -0.521846702827
-0.060412337497, -0.239948952133, 0.339018012618, 0.158145929539, -0.251896511758, 0.0566581129985, -0.41247056434, 0.170495222534, -0.566840965991, -0.0775180462966, -0.282082433221, 0.155305746145, 0.383820387139, 0.0167934076173, -0.397546081605, -0.312213957801, -0.519058139559, 0.300647847361, 0.368260149381, -0.59568647061, 0.474565472339, 0.340429477969, -0.379967386521, 0.272451357293, -0.778956586812, 0.26928230578, -0.110935367774, -0.074951599739, 0.508189381715, 0.475529968513, -0.371234042176, -0.419179329098, -0.13115406125, 0.410606243222, -0.0358285587344, -0.871334645288, -0.12529607505, 0.391652783493, -0.239386794376, 0.0690974451248, 0.407547512311, 0.76905168691, 0.329529693663, 0.0846698135005, -0.190190370815, 0.106391927786, -0.492402745729, 0.632113410413, -0.122971255877
0.698999019496, 0.879090538788, 0.591054980975, 0.554539204562, 0.437929496349, 0.728693419639, 0.824853963112, 0.437727326246, 0.507184224787, 0.448053952654, -0.182863044821, -0.341330917569, 0.312993047454, -0.30709434918, -0.109089945009, 0.522599607676, 0.378254635218, 0.286466944264, 0.540811508298, 0.492698776629, 0.640426786795, 0.348147215553, 0.67497887467, 0.655176275592, -0.00778294545174, 0.41772326736, 0.126718410039, 0.417059857849, 0.736472632552, 0.0498360581446, 0.989584968139, 0.239864337664, -0.315835630883, 0.209124942286, -0.092414925477, 0.258910852548, 0.585750330176, 0.742226680347, 0.143222614361, 0.525578718721, 0.378196952222, 0.00674731942593, 0.780709091099, -0.172966920425, 0.407780163366, 0.693490750227, 0.790734790707, 0.664982330191, 0.550626280241
0.392601816409, 0.894417817591, 0.0924128774608, 0.224933575253, 0.295816383885, 0.496451357075, -0.036258368738, 0.565968993226, 0.391229979963, 0.457222246027, -0.114285183136, -0.464334198108, 0.33493962864, -0.562482932571, -0.705609848095, 0.242763194339, 0.467095756146, 0.0244480351097, 0.353914905809, 0.418142666034, 0.511153697591, 0.406440003155, 0.359434574433, 0.302365200398, -0.508212941394, -0.350693044886, 0.0372850542919, 0.0618361913464, 0.599339436792, 0.114263253732, 0.985132251047, 0.558657010664, -0.0915668310663, 0.192503265949, 0.0663664272758, -0.495111853271, 0.464192745157, 0.487628922408, 0.110984717183, 0.245148786365, -0.00714791276398, 0.123435468577, 0.658957113046, -0.463847041704, 0.295168503956, 0.626654024437, 0.852074629683, -0.0472720868019, -0.00921411867289
-0.226881988765, 0.814024110449, -0.364942882959, 0.795966074924, 0.218524621543, 0.23366222673, 0.505493430061, 0.152549554165, 0.572283271776, 0.123018104355, 0.158758210629, -0.0717807245433, 0.880740443234, 0.354952620129, -0.057334261107, 0.268323074117, 0.0404397632543, 0.197418535819, 0.541916110869, 0.427214216032, 0.554271070002, 0.476998827176, -0.334414593596, 0.576488214204, 0.00324029439361, 0.524638745932, 0.652156988049, 0.580270015239, 0.538985978199, 0.0611498971357, 0.914903788387, 0.116751172222, 0.531380549859, 0.759575444112, 0.337572987337, 0.2962146173, 0.547625022415, 0.302332293432, 0.73136648956, 0.537641629805, 0.646215657812, 0.513589871706, 0.742534234249, 0.362252766152, 0.462819985239, -0.180897481471, 0.819853533309, 0.670926998856, 0.342063502321
-0.215018274256, 0.118787802, -0.471842240514, -0.533554523, 0.446308997673, 0.206587539133, -0.0470252631433, -0.445703065459, 0.239850622285, -0.115141104296, 0.560274264603, -0.114789888974, 0.714734936253, 0.689993800866, 0.319629680012, 0.284756436088, -0.132731011606, -0.174835632152, 0.0115532746489, -0.192152297113, -0.398268404116, 0.823361483482, -0.365440401098, -0.284078279956, 0.375870611138, -0.00735437173586, -0.0509128838669, 0.233668353654, -0.0497935684106, 0.251945745651, -0.874830175342, -0.0442540381018, 0.432936851312, 0.402453774626, 0.328243604982, 0.302085453282, -0.172456447552, -0.156140011974, -0.374342113139, 0.366754425842, -0.45638912066, 0.489669827677, 0.476576750655, -0.162998444603, 0.396493375211, -0.231430196365, 0.445977899299, -0.314457862306, -0.378089357623
0.176571754427, -0.452463066677, -0.573727600594, -0.458496057845, -0.31208470871, 0.106210665416, -0.361532191977, 0.275687780046, -0.287028421087, 0.174768849472, -0.464431102093, -0.396616117371, 0.474676927657, -0.153455357429, -0.543732835109, -0.0160191581332, 0.0390373694218, 0.243245038443, 0.119435858109, -0.650289379838, -0.32138625837, 0.358440549677, 0.0631393906614, 0.0629320705187, 0.0111086436048, -0.161275384407, 0.0961124227234, 0.392795963966, -0.180239116696, 0.142410388193, -0.484771593643, 0.121917264533, -0.581880488126, 0.161879516955, 0.115846468683, -0.513536704291, 0.0597626076272, -0.103599801322, 0.113734851428, -0.562702132916, 0.115937828459, 0.642310071083, 0.365008901602, -0.295418308982, -0.457574666736, 0.656880558088, -0.330717022215, 0.511747472394, -0.622332600461
-0.222751726378, 0.616384852485, 0.248946569361, 0.242812498464, -0.123518773472, 0.593659206817, -0.16723231725, 0.601329772607, 0.403269996648, 0.65414738419, 0.346082479411, 0.350212087035, -0.223171314058, 0.279628929934, 0.790065126015, 0.158228204345, 0.696396144406, -0.11563801502, 0.722767558261, -0.485370340221, 0.349696674871, 0.740083556234, 0.00940023513114, -0.30454377402, -0.137320693785, 0.564797912721, 0.658079306361, 0.307444812723, 0.752659980108, 0.275536913188, -0.941972819308, 0.117008346444, 0.549210458915, 0.598231467035, -0.0784837566398, 0.457834550035, 0.432256420785, 0.159808437312, -0.591544772825, 0.0303590395697, 0.241368947663, 0.922676190774, 0.854519997534, 0.0412240365517, 0.297455112058, 0.0869696117231, 0.726345644416, -0.554672604023, -0.38327137575
0.54032494656, 0.867447867356, 0.383602416171, 0.305659515361, 0.534792533288, 0.55967953933, 0.56925845556, 0.221442194195, 0.644957486678, 0.418346062008, 0.01987278422, -0.21508880954, 0.440595582718, -0.115774856791, -0.702704839882, 0.339430080419, 0.128608017803, 0.266419249592, 0.695669878667, 0.332953143848, 0.636531469177, 0.311596264933, -0.282936023617, 0.770933780192, -0.126302234366, 0.589175568993, 0.26337105341, 0.0306861377298, 0.637403430651, 0.0793801957445, 0.987470074798, 0.428608658553, -0.230350744895, 0.36192959766, -0.227448514997, 0.274726469382, 0.579995532833, 0.521843368254, 0.354837838049, 0.493701667649, -0.117959567936, -0.0331950236562, 0.688709533054, -0.0948495251557, 0.525537772777, 0.705352866008, 0.777774770127, 0.631415990306, 0.43003937563
-0.421050690395, -0.0244388051479, 0.00345322177081, -0.024630727245, -0.55199235637, -0.0928447800091, -0.0994143256274, 0.368580584399, 0.501177037643, -0.0538427989916, -0.351287748944, 0.122969476394, -0.0723014655586, -0.104798696127, -0.306435874062, -0.455828453427, 0.222911755926, 0.0955540726001, -0.648144510735, -0.119824625424, -0.713161695154, 0.241291004493, 0.082497312714, -0.36839549285, 0.430867267095, -0.324528265737, -0.268957615644, -0.265210446888, -0.164013710492, -0.317451972691, -0.400451747752, 0.193007602961, 0.37823363395, -0.556493636175, -0.562931817148, -0.00119754754798, 0.0797720717181, -0.460146249643, 0.603496256533, -0.0428486920791, -0.0228448177409, 0.518774022462, -0.240345171536, 0.0833565157483, -0.585787368122, -0.19186283374, -0.384767056273, -0.601582553671, -0.0053607350764
-0.18932960936, 0.0586056329465, 0.00599727093008, 0.113844536108, -0.0738944372955, 0.777646926707, 0.346164654046, -0.0731830850857, -0.569408679942, 0.152475454075, -0.299251689905, 0.160095567889, 0.197309878979, 0.475384617465, -0.583409366985, -0.0298202600589, 0.190289067252, 0.0800127388333, 0.433379288714, 0.136493318586, 0.667123790157, 0.80466273636, -0.402817467572, 0.832901784017, 0.458471525273, 0.277597469642, -0.44404255971, 0.548339761246, 0.792166104946, 0.215902736635, -0.0475465326769, -0.00223496214588, 0.115946133548, 0.44531276412, 0.370146880725, 0.405937872163, -0.0102439345904, -0.173295416555, 0.151095483594, 0.355663938603, 0.134244133292, 0.819626395036, 0.452843113813, 0.478391047402, 0.114691271255, 0.13945875811, -0.280463095968, 0.533469974244, -0.0703882530459
-0.461266888071, 0.072116520405, -0.713094581262, -0.0205566850783, -0.277784730529, 0.0622171038182, -0.114041518238, -0.0617298500618, -0.0235664257679, -0.0543395609056, -0.435349830834, 0.352528422772, 0.360680704124, -0.18234895053, -0.509050458137, 0.0152127893333, 0.265144471448, -0.214607648217, -0.0894925231252, 0.0089477974497, 0.757008468662, 0.551213395749, 0.0204345667786, 0.758628464734, 0.25649850451, -0.212201094931, 0.0320163149189, -0.367862685162, -0.0941126923749, 0.166687069062, 0.838083046539, 0.0929758883938, -0.370975276087, -0.302683759401, -0.201436927926, 0.505733177904, -0.556833243415, -0.299820986759, -0.0654774440437, -0.132902132187, 0.0232734860269, 0.55059934472, 0.626125866213, -0.129334581369, -0.620203521134, 0.251748179687, 0.732365569408, -0.126690023616, -0.29650721486
-0.333615333928, 0.270240248378, 0.637562341584, 0.803574457248, 0.284313818134, 0.294907381893, 0.0402124835741, 0.619057809807, 0.123526689643, 0.0649913635013, 0.602678789607, 0.00455294620732, 0.149593739116, 0.213254638695, 0.38466983851, -0.507150372811, -0.114424632321, 0.396874371904, -0.238873103838, 0.683178592952, 0.523078963551, 0.452150990657, -0.0343534978905, 0.0630032299365, -0.57127234322, 0.351490481126, -0.341267106329, 0.00557349099311, 0.453326752323, 0.167616161003, 0.949853402914, 0.80674451376, 0.517326364556, -0.251846084171, 0.391466492508, -0.0818110880768, 0.106839531902, 0.460976463313, 0.460296681438, 0.659959596874, 0.478444145646, 0.293190949881, 0.536640174964, 0.384457797118, 0.0602525528564, 0.423259827402, -0.121937305293, 0.552713066277, 0.22629021454
0.209923234093, 0.897819923471, 0.307296781626, -0.252654580687, 0.135675146494, 0.118498668974, -0.515291591499, 0.374292204575, 0.160553582778, -0.311026971929, 0.245038990536, -0.452083577717, 0.35441671444, -0.602585378021, -0.104668172546, 0.280328039162, -0.709466096627, 0.0743059915246, 0.30911264276, 0.4070755388, 0.533368322957, 0.386824759525, 0.441981499182, 0.168524607165, -0.671449070406, -0.622050617273, -0.277611370738, 0.515193421368, 0.350469298518, 0.44199851444, 0.972456609, 0.266070570043, -0.523125750925, 0.194113604974, -0.37214994951, -0.359228890181, 0.38213035175, 0.489757042157, 0.336790676561, -0.017000048081, -0.383360301058, 0.119315845201, 0.632495090729, -0.099098177631, 0.270308307826, 0.517158127773, -0.0919168371091, -0.135030900002, -0.127731880861
0.352223069021, 0.907629979869, 0.233404608381, 0.302131354783, 0.244938171949, 0.870667525444, 0.290883410955, 0.507416060636, 0.284333280664, 0.488811988637, -0.11561604263, -0.621547239016, 0.443833124326, -0.662559020818, -0.0685015761373, 0.470078690038, 0.768611813769, 0.141335216295, 0.247847155995, 0.246920050315, 0.521175759199, 0.263261642762, -0.37770209228, 0.0956610667236, -0.148147356833, -0.593272830412, -0.0925310278226, 0.31479122226, 0.74916021961, 0.44503661792, 0.989032464419, 0.605504894174, -0.0951205390009, 0.116776074778, -0.0909949811931, -0.0826009763226, 0.531487815336, 0.618864159319, 0.156812463082, 0.461112784216, -0.0172655683817, 0.160794175779, 0.662616221136, -0.434175936791, 0.395711147305, 0.632082261466, 0.720062908259, -0.0060260571836, 0.147114060876
-0.32062455477, 0.085422533151, -0.677580750081, -0.39037687618, -0.144798870842, 0.508765456406, 0.082216891106, -0.0244556400958, -0.320617158794, 0.614665500969, 0.20064794432, 0.422160060906, 0.557360424178, 0.303646291601, -0.700387484016, 0.222871169469, 0.639484669155, 0.313975230003, 0.505698627207, 0.286635191062, -0.299561763687, 0.508271049156, 0.00258894512581, 0.283213067818, 0.362878756406, -0.431256140119, -0.0619712962743, 0.174215449787, -0.149874421693, 0.297232699786, -0.00824774392849, -0.388323056479, -0.299191151247, 0.295005288741, -0.269545788404, -0.153121353813, -0.0856849873036, -0.0109977279482, 0.0579675490564, 0.40460342868, 0.0385535486701, 0.866745856527, 0.546149466718, 0.628681626557, -0.481576297724, 0.288419611612, -0.0747687179861, 0.510297233231, 0.217703926774
0.463137133924, 0.901318005316, 0.233396291728, -0.403101582023, -0.0750703099245, 0.690869589587, -0.247501650587, 0.19320411814, 0.139954092936, 0.00765993931671, 0.0917191969459, -0.42886875193, 0.269529889807, -0.522985897613, 0.593767809822, 0.408939940623, -0.307930447601, 0.131063662096, 0.404747885603, 0.439819127307, 0.613938558736, 0.225977130799, 0.176916107852, 0.0404341787797, -0.374199219581, -0.527662771504, -0.392661403914, 0.247337851666, 0.413354801211, 0.394808227621, 0.981242409377, 0.323160119802, -0.381367249301, 0.100390836875, -0.384399779759, 0.181195897318, 0.431131720885, 0.694407009898, 0.102944824623, 0.449353399161, 0.00346771893487, 0.289179059801, 0.680751991875, -0.263600340649, 0.580165827162, 0.467937061322, 0.691749398711, 0.355631891458, 0.314686727742
-0.168931340096, 0.482227660438, -0.257089286252, 0.258325758552, -0.566835086972, 0.319099186657, 0.299221784594, -0.248773760665, 0.313770934544, 0.183909604772, -0.446572337151, -0.106943880753, -0.0676753296038, 0.401047325299, 0.302609941495, 0.303101362512, -0.269064836584, -0.394921870236, 0.195728825695, -0.120948919186, -0.0663714668052, 0.634176751417, -0.441130702936, -0.110876034251, 0.412665127794, 0.132200877001, -0.24058422255, -0.273312196136, 0.367275312995, -0.0378995481113, -0.752098022659, 0.056862564894, 0.00849456722923, 0.518747743917, -0.320107873341, 0.181557061285, 0.10418020877, 0.0723570688172, 0.148851203139, -0.085612594144, -0.514622146521, 0.621062790462, 0.684252106022, -0.131656729915, 0.386006378824, 0.034596750331, 0.423802603042, -0.357082274316, -0.267026798572
0.132111799023, 0.400060637858, 0.57195381396, -0.19036526385, 0.281359771613, 0.375615463246, 0.0507092910634, 0.531406956344, 0.391314954285, -0.317050512669, 0.461472160413, -0.0518449605907, -0.117507837398, 0.0852393296208, 0.613052154573, 0.10790211499, -0.0532741634634, 0.166553871418, -0.569135096177, -0.281917140322, 0.826886011548, 0.767401988654, -0.397344536493, -0.474609858555, -0.323652845953, -0.137271309878, 0.336337687575, -0.098095922451, -0.143774394263, -0.403243094156, -0.692759836576, -0.395633214374, -0.141136894953, 0.119399202002, -0.251384649023, -0.602269401248, -0.57579321597, -0.553134070158, 0.28424957404, -0.0904518467349, 0.421358932978, 0.668798643507, 0.746846816725, 0.515085928007, -0.472727442233, -0.273428256174, -0.66683882592, -0.0242837878768, -0.0619906456538
0.657772462649, 0.898634215702, 0.0864279615203, -0.163784303565, -0.442597334991, 0.845377846584, -0.609719862394, 0.69020247762, -0.0364549092857, -0.071083515341, 0.465871997851, -0.0839497554049, 0.0755526474623, 0.636937839568, 0.723424263377, 0.175244955405, 0.304557631274, 0.105092026958, 0.00915224446331, -0.0414709148972, 0.462409530325, 0.460610362383, 0.6586668859, 0.556159103787, 0.510189157129, 0.810875031317, -0.152447443485, 0.360975975749, 0.164155111118, 0.118758000777, 0.416729666434, 0.305282950169, 0.385824275041, 0.220387186273, -0.0885660374674, 0.405070422231, 0.662683161656, 0.795640669487, -0.333969875497, 0.211364405462, 0.299739737937, 0.77607772317, 0.145251682778, -0.673331242779, -0.367603185153, 0.458421098669, -0.327085999873, 0.0581119893371, -0.698195574725
0.766259624388, 0.915076247307, 0.83685208674, 0.593131686802, 0.663667346363, 0.793448014087, 0.960718377979, 0.672349448498, 0.6808940924, 0.500733409767, 0.336324749303, 0.200038187972, 0.346062550382, 0.150020049689, 0.604927374123, 0.197608836714, 0.600124178638, 0.43365220147, 0.363989816965, 0.579377150364, 0.84492925243, 0.678039862542, 0.829890900559, 0.743045825907, 0.624316559022, 0.443991904259, 0.0710966963911, 0.750713326053, 0.800447891602, 0.0268369273402, 0.993738674507, 0.364087275883, -0.336309618209, 0.388581600157, 0.305886972008, 0.0444551656178, 0.670959051131, 0.73095192231, 0.62344413584, 0.521719992443, 0.479377466992, 0.34565748023, 0.829265222953, 0.0108033774379, -0.0289426938423, 0.717287288351, 0.79289998106, 0.86861374733, 0.754574121914
0.584789871391, 0.677664039348, 0.319880052362, 0.649781142668, -0.298339234329, 0.484165423021, 0.368601695118, 0.534256886988, -0.0674283411851, 0.379483608274, 0.872105544837, 0.611884495515, 0.576393402412, 0.241254967104, 0.254894582348, 0.490708946881, -0.419809960856, 0.440937631978, 0.19122779225, 0.1281460199, 0.203732306917, 0.381466223912, -0.299040001875, 0.678747806608, 0.395766953434, 0.635538689851, 0.298181210157, 0.613058990516, 0.553583395233, 0.423538227728, 0.954916696771, 0.753905986426, -0.197786039707, 0.664383325031, 0.0633404202953, 0.061081882977, 0.281233685462, 0.635527052716, 0.763043781027, 0.558191735127, 0.391298011955, -0.147349799683, 0.882714584624, 0.537693850405, 0.0513035271503, 0.335959449375, 0.390181516649, 0.470350951936, -0.0746145196084
-0.582878383663, 0.0159777485274, -0.561876580906, 0.254292599619, -0.586124419992, 0.173837670145, 0.0149750787407, -0.0296859965225, 0.369809623522, -0.452594856227, 0.11845645395, 0.184565530802, 0.310955702279, -0.352789772467, -0.0443785312243, -0.162059131062, 0.740209171577, -0.0375539545156, 0.293901527492, -0.226101156514, -0.755739875177, 0.626615496599, -0.251748644034, 0.240418575106, -0.588336700601, -0.156509049276, 0.166249036054, -0.679147254276, -0.515112979728, -0.301657798772, -0.920640550157, 0.196748343422, -0.272057074294, -0.281662039123, -0.551805397391, 0.327885599594, -0.510451561345, -0.502026483407, 0.345974349197, 0.703208997421, -0.137313727949, -0.201988408141, -0.439965459064, 0.29334063067, -0.745131856633, -0.700108737845, 0.526435563114, -0.339496572579, -0.457600704555